digraph Tree {
node [shape=box] ;
0 [label="X[1] <= 0.5\nentropy = 0.98\nsamples = 12\nvalue = [7, 5]"] ;
1 [label="X[2] <= 2.5\nentropy = 0.764\nsamples = 9\nvalue = [7, 2]"] ;
0 -> 1 [labeldistance=2.5, labelangle=45, headlabel="True"] ;
2 [label="X[0] <= 25.5\nentropy = 0.863\nsamples = 7\nvalue = [5, 2]"] ;
1 -> 2 ;
3 [label="entropy = 0.0\nsamples = 1\nvalue = [1, 0]"] ;
2 -> 3 ;
4 [label="X[3] <= 1.5\nentropy = 0.918\nsamples = 6\nvalue = [4, 2]"] ;
2 -> 4 ;
5 [label="entropy = 0.0\nsamples = 1\nvalue = [0, 1]"] ;
4 -> 5 ;
6 [label="X[0] <= 27.5\nentropy = 0.722\nsamples = 5\nvalue = [4, 1]"] ;
4 -> 6 ;
7 [label="entropy = 0.0\nsamples = 3\nvalue = [3, 0]"] ;
6 -> 7 ;
8 [label="X[2] <= 1.5\nentropy = 1.0\nsamples = 2\nvalue = [1, 1]"] ;
6 -> 8 ;
9 [label="entropy = 0.0\nsamples = 1\nvalue = [1, 0]"] ;
8 -> 9 ;
10 [label="entropy = 0.0\nsamples = 1\nvalue = [0, 1]"] ;
8 -> 10 ;
11 [label="entropy = 0.0\nsamples = 2\nvalue = [2, 0]"] ;
1 -> 11 ;
12 [label="entropy = 0.0\nsamples = 3\nvalue = [0, 3]"] ;
0 -> 12 [labeldistance=2.5, labelangle=-45, headlabel="False"] ;
}